{
    "fhe_model": {
        "weights": {
            "layer1.weight": [
                [
                    -1.3102012872695923,
                    0.7407487034797668,
                    1.21846604347229,
                    -1.0509839057922363,
                    -1.6293730735778809,
                    -0.8423782587051392,
                    -1.4341233968734741,
                    1.3343642950057983,
                    0.3957779109477997,
                    0.33219099044799805,
                    0.4042629599571228,
                    0.5036860108375549,
                    1.0635522603988647
                ],
                [
                    -1.2507694959640503,
                    -1.0958342552185059,
                    1.3309029340744019,
                    0.5721855163574219,
                    0.06047894060611725,
                    -0.5132824778556824,
                    0.7162678241729736,
                    1.1490839719772339,
                    0.8811197280883789,
                    0.41889238357543945,
                    0.488530695438385,
                    0.8933566808700562,
                    0.5182666182518005
                ],
                [
                    -1.51930832862854,
                    1.3290536403656006,
                    1.4654197692871094,
                    1.0612539052963257,
                    1.2203482389450073,
                    1.0250473022460938,
                    1.2608751058578491,
                    1.354048252105713,
                    0.2757238745689392,
                    0.5084847807884216,
                    0.0077182273380458355,
                    0.5517242550849915,
                    0.849605143070221
                ],
                [
                    1.5057306289672852,
                    -1.6735297441482544,
                    1.3441115617752075,
                    -0.7568028569221497,
                    -1.096976637840271,
                    -1.3459662199020386,
                    -1.4322515726089478,
                    1.0525861978530884,
                    1.1805462837219238,
                    0.8551434874534607,
                    1.0164164304733276,
                    0.12669481337070465,
                    1.2644193172454834
                ],
                [
                    -0.7472594380378723,
                    -1.0184327363967896,
                    0.8641011118888855,
                    -1.387879490852356,
                    -1.4959056377410889,
                    -1.59367036819458,
                    -1.3541088104248047,
                    0.6674292087554932,
                    0.678392231464386,
                    0.6286062002182007,
                    1.2801170349121094,
                    1.3392696380615234,
                    0.7473395466804504
                ],
                [
                    0.15905019640922546,
                    0.334420770406723,
                    -0.14765775203704834,
                    0.4230673015117645,
                    0.8637378811836243,
                    0.40944409370422363,
                    0.1371172070503235,
                    -0.3490605354309082,
                    -0.04731649532914162,
                    0.25227972865104675,
                    -0.059759292751550674,
                    -0.11543936282396317,
                    0.014877024106681347
                ],
                [
                    0.20140115916728973,
                    0.560999870300293,
                    -0.07729121297597885,
                    0.35676977038383484,
                    0.38255152106285095,
                    0.3369966149330139,
                    0.6459049582481384,
                    -0.26106521487236023,
                    -0.14212454855442047,
                    0.3004893958568573,
                    -0.0030733353924006224,
                    -0.6881881952285767,
                    -0.410123348236084
                ],
                [
                    -1.5891013145446777,
                    0.42208772897720337,
                    0.8668704032897949,
                    1.3012452125549316,
                    0.6690719127655029,
                    1.1210116147994995,
                    1.2969179153442383,
                    0.9455769062042236,
                    0.21230904757976532,
                    -0.122576043009758,
                    0.16507776081562042,
                    0.8489335179328918,
                    1.1888624429702759
                ],
                [
                    0.41910430788993835,
                    0.6110418438911438,
                    -0.05486670508980751,
                    0.22953352332115173,
                    0.07945720851421356,
                    0.7280546426773071,
                    0.03847554326057434,
                    -0.25155186653137207,
                    -0.21785083413124084,
                    0.0672602653503418,
                    -0.15015767514705658,
                    -0.18417641520500183,
                    -0.2521848976612091
                ],
                [
                    -0.040120840072631836,
                    0.17085227370262146,
                    -0.07054159045219421,
                    -0.15906840562820435,
                    0.20234441757202148,
                    0.4206920266151428,
                    -0.014848875813186169,
                    -0.25269776582717896,
                    -0.20715491473674774,
                    -0.4320078492164612,
                    -0.23401950299739838,
                    -0.6260987520217896,
                    -0.588456392288208
                ],
                [
                    -0.4801197648048401,
                    -0.6559772491455078,
                    1.3709524869918823,
                    -1.2113518714904785,
                    -1.4286627769470215,
                    -1.4455007314682007,
                    -1.6202236413955688,
                    1.223796010017395,
                    1.0161670446395874,
                    0.08409559726715088,
                    0.27210554480552673,
                    0.47133493423461914,
                    0.6640627384185791
                ],
                [
                    0.37467053532600403,
                    0.580714225769043,
                    -0.11157988756895065,
                    0.17922867834568024,
                    0.3425467014312744,
                    1.2621500492095947,
                    0.07941405475139618,
                    -0.27577489614486694,
                    -0.04480128735303879,
                    0.07313863188028336,
                    -0.22584910690784454,
                    -0.004314223770052195,
                    -0.28231045603752136
                ],
                [
                    0.4476412236690521,
                    0.63592928647995,
                    -0.044317826628685,
                    -0.11391554772853851,
                    0.4497043490409851,
                    0.37936675548553467,
                    0.5094610452651978,
                    0.03040643036365509,
                    -0.4866989254951477,
                    0.06202761083841324,
                    0.0015366273000836372,
                    -0.5640204548835754,
                    -0.19712646305561066
                ],
                [
                    -1.3133699893951416,
                    0.20106706023216248,
                    1.0864427089691162,
                    0.8180123567581177,
                    -0.6477321982383728,
                    -1.3718490600585938,
                    0.14116723835468292,
                    1.3279119729995728,
                    0.7034372091293335,
                    0.4394039809703827,
                    0.43661001324653625,
                    0.614105761051178,
                    0.514044463634491
                ],
                [
                    0.1580965518951416,
                    0.32449871301651,
                    -0.03633963689208031,
                    0.0355338528752327,
                    0.2298669070005417,
                    0.6037012934684753,
                    0.6900209784507751,
                    -0.1557169407606125,
                    -0.199244424700737,
                    -0.15954288840293884,
                    -0.23217308521270752,
                    -0.40737131237983704,
                    -0.1998300403356552
                ],
                [
                    -1.6406404972076416,
                    1.075157642364502,
                    -1.195418119430542,
                    1.358546257019043,
                    1.386569619178772,
                    1.324856162071228,
                    1.2688384056091309,
                    0.27514898777008057,
                    1.071226954460144,
                    0.1915132701396942,
                    -0.5058394074440002,
                    1.079529047012329,
                    0.8650130033493042
                ]
            ],
            "layer1.bias": [
                0.8137151002883911,
                0.8370157480239868,
                0.7054972052574158,
                0.9209710955619812,
                0.8545902371406555,
                -0.3213339149951935,
                -0.26257118582725525,
                0.7072328329086304,
                -0.2823607623577118,
                -0.24939940869808197,
                0.8787285089492798,
                -0.28409552574157715,
                -0.2833939790725708,
                0.8398818373680115,
                -0.316452294588089,
                0.6590510010719299
            ],
            "layer2.weight": [
                [
                    585.7017211914062,
                    192.6296844482422,
                    518.154052734375,
                    187.4887237548828,
                    308.44720458984375,
                    -349.8419494628906,
                    -117.94095611572266,
                    572.4413452148438,
                    -273.78271484375,
                    -469.9200744628906,
                    50.39158248901367,
                    -489.8089904785156,
                    -4.3338236808776855,
                    299.590087890625,
                    -316.30487060546875,
                    105.48336029052734
                ]
            ],
            "layer2.bias": [
                91000.0
            ]
        },
        "poly_coeffs": {
            "act1": [
                0.4321199357509613,
                1.9907811880111694,
                1.0702295303344727
            ]
        }
    }
}