{
    "fhe_model": {
        "weights": {
            "layer1.weight": [
                [
                    0.8895105123519897,
                    -0.942881166934967,
                    0.7382937073707581,
                    -0.8450350165367126,
                    -0.9161958694458008,
                    -0.9161958694458008,
                    -0.8984056115150452,
                    0.9695664644241333,
                    0.8806154131889343,
                    -1.2986853122711182,
                    -0.8272448182106018,
                    -0.8984056115150452,
                    -0.9784615635871887
                ],
                [
                    0.8895105123519897,
                    -0.942881166934967,
                    0.7382937073707581,
                    -0.8806154131889343,
                    -0.9250909686088562,
                    -0.9250909686088562,
                    -0.9161958694458008,
                    0.9695664644241333,
                    0.8806154131889343,
                    -1.2808951139450073,
                    -0.8272448182106018,
                    -0.8717203140258789,
                    -0.9606713652610779
                ],
                [
                    0.8895105123519897,
                    -0.942881166934967,
                    0.7382937073707581,
                    -0.8539301156997681,
                    -0.9250909686088562,
                    -0.9073007106781006,
                    -0.9161958694458008,
                    0.9250909686088562,
                    0.8806154131889343,
                    -1.076307773590088,
                    -0.7827692627906799,
                    -0.8005594611167908,
                    -0.9073007106781006
                ],
                [
                    0.8717203140258789,
                    -0.9339860677719116,
                    0.7471888661384583,
                    -0.7827692627906799,
                    -0.8361399173736572,
                    -0.8806154131889343,
                    -0.8361399173736572,
                    0.9250909686088562,
                    0.8717203140258789,
                    -1.209734320640564,
                    -0.7916643619537354,
                    -0.7116084098815918,
                    -0.9695664644241333
                ],
                [
                    0.8895105123519897,
                    -0.942881166934967,
                    0.7382937073707581,
                    -0.8628252148628235,
                    -0.9339860677719116,
                    -0.9161958694458008,
                    -0.9161958694458008,
                    0.9250909686088562,
                    0.8806154131889343,
                    -1.076307773590088,
                    -0.8005594611167908,
                    -0.8094545602798462,
                    -0.9606713652610779
                ],
                [
                    0.8895105123519897,
                    -0.942881166934967,
                    0.7382937073707581,
                    -0.8183496594429016,
                    -0.8984056115150452,
                    -0.8984056115150452,
                    -0.8628252148628235,
                    0.9250909686088562,
                    0.8806154131889343,
                    -1.2720000743865967,
                    -0.7916643619537354,
                    -0.8628252148628235,
                    -0.9073007106781006
                ],
                [
                    0.8895105123519897,
                    -0.942881166934967,
                    0.7382937073707581,
                    -0.8183496594429016,
                    -0.8984056115150452,
                    -0.9073007106781006,
                    -0.8895105123519897,
                    0.9250909686088562,
                    0.8806154131889343,
                    -1.2808951139450073,
                    -0.8005594611167908,
                    -0.8895105123519897,
                    -0.9339860677719116
                ],
                [
                    0.8895105123519897,
                    -0.942881166934967,
                    0.7471888661384583,
                    -0.8539301156997681,
                    -0.9250909686088562,
                    -0.9073007106781006,
                    -0.8984056115150452,
                    0.9073007106781006,
                    0.8717203140258789,
                    -1.0674126148223877,
                    -0.7560839653015137,
                    -0.7738741636276245,
                    -0.9250909686088562
                ]
            ],
            "layer1.bias": [
                1.336134672164917,
                1.3196085691452026,
                1.1873997449874878,
                1.379928708076477,
                1.169221043586731,
                1.3518344163894653,
                1.332003116607666,
                1.1824419498443604
            ],
            "layer2.weight": [
                [
                    -0.8195740580558777,
                    -0.8500827550888062,
                    -0.870884120464325,
                    -0.9069398641586304,
                    -0.8528562784194946,
                    -0.8486959934234619,
                    -0.865337073802948,
                    -0.865337073802948
                ],
                [
                    -0.5533165335655212,
                    -0.5630238056182861,
                    -0.5755046606063843,
                    -0.5838251709938049,
                    -0.5713443756103516,
                    -0.5921457409858704,
                    -0.5755046606063843,
                    -0.5574767589569092
                ],
                [
                    -0.8833649754524231,
                    -0.870884120464325,
                    -0.8625636100769043,
                    -0.9027795791625977,
                    -0.8889119625091553,
                    -0.8736576437950134,
                    -0.8681105971336365,
                    -0.8986192941665649
                ],
                [
                    -0.7141804695129395,
                    -0.7183407545089722,
                    -0.7141804695129395,
                    -0.6989260911941528,
                    -0.7072466611862183,
                    -0.6878320574760437,
                    -0.711406946182251,
                    -0.6670306921005249
                ]
            ],
            "layer2.bias": [
                -0.7806532382965088,
                -0.32091519236564636,
                -0.5949550867080688,
                -0.3623817563056946
            ]
        },
        "poly_coeffs": {
            "act1": [
                1.6113306283950806,
                0.721092700958252,
                1.3932223320007324,
                0.47627729177474976
            ],
            "act2": [
                -4.76238489151001,
                6.6766767501831055,
                -4.9491448402404785,
                6.956817150115967
            ]
        }
    }
}